Language model created by QuickLM on Wed Jan 27 11:20:02 EST 2016
Copyright (c) 1996-2010 Carnegie Mellon University and Alexander I. Rudnicky

The model is in standard ARPA format, designed by Doug Paul while he was at MITRE.

The code that was used to produce this language model is available in Open Source.
Please visit http://www.speech.cs.cmu.edu/tools/ for more information

The (fixed) discount mass is 0.5. The backoffs are computed using the ratio method.
This model based on a corpus of 7 sentences and 15 words

\data\
ngram 1=15
ngram 2=21
ngram 3=20

\1-grams:
-1.0122 </s> -0.3010
-1.0122 <s> -0.2566
-1.8573 AFTERNOON -0.2762
-1.8573 BOB -0.2566
-1.8573 EVENING -0.2762
-1.3802 GOOD -0.2825
-1.8573 HELLO -0.2762
-1.5563 IS -0.2888
-1.8573 MORNING -0.2762
-1.5563 MY -0.2825
-1.3802 NAME -0.2430
-1.8573 NICK -0.2566
-1.2553 TINKER -0.2566
-1.8573 WHAT'S -0.2950
-1.8573 YOUR -0.2825

\2-grams:
-0.6690 <s> GOOD 0.0000
-1.1461 <s> HELLO 0.0000
-0.8451 <s> MY 0.0000
-1.1461 <s> WHAT'S 0.0000
-0.3010 AFTERNOON TINKER 0.0000
-0.3010 BOB </s> -0.3010
-0.3010 EVENING TINKER 0.0000
-0.7782 GOOD AFTERNOON 0.0000
-0.7782 GOOD EVENING 0.0000
-0.7782 GOOD MORNING 0.0000
-0.3010 HELLO TINKER 0.0000
-0.6021 IS BOB 0.0000
-0.6021 IS NICK 0.0000
-0.3010 MORNING TINKER 0.0000
-0.3010 MY NAME -0.1249
-0.7782 NAME </s> -0.3010
-0.4771 NAME IS 0.0000
-0.3010 NICK </s> -0.3010
-0.3010 TINKER </s> -0.3010
-0.3010 WHAT'S YOUR 0.0000
-0.3010 YOUR NAME -0.2218

\3-grams:
-0.7782 <s> GOOD AFTERNOON
-0.7782 <s> GOOD EVENING
-0.7782 <s> GOOD MORNING
-0.3010 <s> HELLO TINKER
-0.3010 <s> MY NAME
-0.3010 <s> WHAT'S YOUR
-0.3010 AFTERNOON TINKER </s>
-0.3010 EVENING TINKER </s>
-0.3010 GOOD AFTERNOON TINKER
-0.3010 GOOD EVENING TINKER
-0.3010 GOOD MORNING TINKER
-0.3010 HELLO TINKER </s>
-0.3010 IS BOB </s>
-0.3010 IS NICK </s>
-0.3010 MORNING TINKER </s>
-0.3010 MY NAME IS
-0.6021 NAME IS BOB
-0.6021 NAME IS NICK
-0.3010 WHAT'S YOUR NAME
-0.3010 YOUR NAME </s>

\end\
